{"layers":[{"nodes":[{"bias":-0.013874940058622096,"value":0.05739594642957879},{"bias":-0.046868005949380565,"value":0.11246380815975487},{"bias":-0.08489235378753779,"value":0.011711671926168066},{"bias":0.03771358978187557,"value":0.16213106602702987},{"bias":0.8633713756077793,"value":0.9914058646528339},{"bias":0.5937918451847308,"value":0.6356965818538565},{"bias":0.5109848607198773,"value":0.595552268985273}]},{"nodes":[{"bias":0.4115482709085913,"value":1.3047855658726197,"input_layer_weights":[0.17476411428455102,0.7971495834226059,0.9767538883698901,0.3222229397928178,0.004120712888373734,-0.15115878761253004,0.26385787046512177]},{"bias":-0.1704224150579804,"value":1.2938531585652395,"input_layer_weights":[0.20484105048123968,0.49608031356186977,0.08811015991698112,0.6305493943120457,0.3586085322319458,0.06555397498874474,0.32416707081638174]},{"bias":0.1386020881285785,"value":1.7733686254742784,"input_layer_weights":[0.5473005655969353,0.8087670046449872,0.04910026266891891,0.8733370593306874,0.6591385930592576,-0.08977312450111888,0.27780912771991373]},{"bias":0.3701826178337055,"value":2.147174979746527,"input_layer_weights":[0.464582513278119,0.9394165460833386,0.8939340201360566,0.306486019836867,0.6978364692885114,0.6705007588174865,0.16595297460164155]}]},{"nodes":[{"bias":-0.2522514358012613,"value":2.6885313585339765,"input_layer_weights":[-0.744924496079249,0.1183734191314032,-0.5133496151679315,-1.0578163690000968]},{"bias":0.3650692514412903,"value":3.759294775231333,"input_layer_weights":[0.2035394191833555,-0.32264976676653534,-0.5975117054297018,-0.6328271073625082]},{"bias":-0.2676393235774808,"value":2.1770817984946857,"input_layer_weights":[-0.05834746567975568,-0.3677851290410006,-0.4173757940537831,-0.7869427097881578]},{"bias":-0.0787766342273366,"value":3.548133137643008,"input_layer_weights":[-0.043360741737156094,-0.10429368510494008,-0.3163506546799262,-0.781855364152535]}]},{"nodes":[{"bias":0.019806740258700994,"value":7.674660792423853,"input_layer_weights":[-1.4429329744740804,-2.629772132940201,-0.855392432343246,-2.022956846205046]},{"bias":-0.22031121135483833,"value":6.3943009215939,"input_layer_weights":[-0.9083830179937371,-1.1941105604289621,-0.7808336075902849,-1.7372215558032809]},{"bias":-0.0593945718813258,"value":10.419860454002123,"input_layer_weights":[-1.8916025022923988,-3.1213446769904847,-1.7849925041449632,-2.866526365659792]}]}]}