{"layers":[{"nodes":[{"bias":0.2764771706873483,"value":0.38068326300111655},{"bias":0.760351894875947,"value":0.8287681880685591},{"bias":0.36293633187221513,"value":0.44585102979921065},{"bias":-0.16546595467364653,"value":0.009269972074596788},{"bias":0.8190797922270455,"value":0.9424125987055951},{"bias":0.8051439980162726,"value":0.9411805623964506},{"bias":0.6018342789573853,"value":0.7966126522484718}]},{"nodes":[{"bias":0.1814652962937402,"value":2.7925521242437514,"input_layer_weights":[0.20168044090903897,0.776330751026375,0.8608105344296804,0.24303550718296554,0.4477351819404111,0.06770124514107631,0.8070584460781659]},{"bias":-0.22049448492101803,"value":2.0724994050451033,"input_layer_weights":[0.25251054300604914,-0.2718761436302628,-0.003061565409292144,0.7770508197463977,-0.007140104912532641,0.28441765857042506,0.6862470215783807]},{"bias":0.09100564157010221,"value":2.7574078020099027,"input_layer_weights":[0.44981414163027633,-0.21488684142346717,0.5688809939623662,0.7658246237926529,0.3982971733725856,0.29025615788933884,0.6403002598154548]},{"bias":-0.11304824273783609,"value":2.9671779209494415,"input_layer_weights":[0.44236047573213183,0.8195718874651617,-0.07553225799810576,0.9349252015783008,0.5541667665748753,0.5972284661531676,0.4114044589016005]}]},{"nodes":[{"bias":0.17993016359299463,"value":6.6953747660348455,"input_layer_weights":[-1.214729823333908,-0.11854561433083644,-0.3262971123862033,-0.8887302741569805]},{"bias":-0.032627289828311534,"value":4.693446453877988,"input_layer_weights":[-2.0738364868273043,-0.926347671029621,-1.2936725979478427,-2.064214179825648]},{"bias":-0.2795536226817306,"value":5.0594109867914785,"input_layer_weights":[-0.6823797733715318,-0.10298473947096354,-0.7490499835552752,-0.2676095411491304]},{"bias":0.09273645077216713,"value":5.108093895749382,"input_layer_weights":[-0.6087675651691666,0.15232000449808702,-0.9871713276492917,-0.7744528769131755]}]},{"nodes":[{"bias":-0.6130399020138522,"value":8.51180063964641,"input_layer_weights":[-5.113335988717151,-3.153924964194908,-4.282847341769746,-4.291973275084287]},{"bias":0.049400514037265086,"value":7.031830474840905,"input_layer_weights":[-3.48559759773915,-2.4447851011847157,-2.9512051777394297,-3.0114815132566366]},{"bias":-1.3451300934375507,"value":14.265018910247969,"input_layer_weights":[-9.158284283128982,-5.782827477063293,-6.538366473950744,-6.53544955126133]}]}]}